digraph Tree {
node [shape=box] ;
0 [label="CDRSB_bl <= -0.608\ngini = 0.667\nsamples = 100.0%\nvalue = [0.333, 0.333, 0.333]"] ;
1 [label="Years_bl <= 0.019\ngini = 0.137\nsamples = 32.0%\nvalue = [0.928, 0.048, 0.024]"] ;
0 -> 1 [labeldistance=2.5, labelangle=45, headlabel="True"] ;
2 [label="gini = 0.028\nsamples = 19.4%\nvalue = [0.986, 0.013, 0.001]"] ;
1 -> 2 ;
3 [label="gini = 0.283\nsamples = 12.7%\nvalue = [0.838, 0.102, 0.06]"] ;
1 -> 3 ;
4 [label="CDRSB_bl <= 0.276\ngini = 0.549\nsamples = 68.0%\nvalue = [0.053, 0.468, 0.479]"] ;
0 -> 4 [labeldistance=2.5, labelangle=-45, headlabel="False"] ;
5 [label="M <= -0.455\ngini = 0.485\nsamples = 41.0%\nvalue = [0.084, 0.668, 0.248]"] ;
4 -> 5 ;
6 [label="gini = 0.282\nsamples = 18.7%\nvalue = [0.064, 0.839, 0.097]"] ;
5 -> 6 ;
7 [label="gini = 0.574\nsamples = 22.4%\nvalue = [0.1, 0.526, 0.374]"] ;
5 -> 7 ;
8 [label="MMSE_bl <= -0.935\ngini = 0.282\nsamples = 26.9%\nvalue = [0.006, 0.162, 0.832]"] ;
4 -> 8 ;
9 [label="gini = 0.059\nsamples = 12.6%\nvalue = [0.0, 0.03, 0.97]"] ;
8 -> 9 ;
10 [label="gini = 0.418\nsamples = 14.3%\nvalue = [0.012, 0.277, 0.711]"] ;
8 -> 10 ;
}